tree
version=v3
num_class=1
num_tree_per_iteration=1
label_index=0
max_feature_idx=11
objective=binary sigmoid:1
feature_names=User_ID Movie_ID Year Ratings_for_Movie Ratings_for_Movie_2005 Netflix_Release_Year Release_Year AVG_Rating_for_Movie Ratings_from_User Ratings_from_User_2005 AVG_Rating_from_User User_Entry_Year
feature_infos=[6:109667] [1:17770] [2000:2005] [34:232944] [1:145783] [1999:2005] [1896:2005] [1.3967611336032388:4.7232699256835069] [1:5900] [0:4319] [1:5] [1999:2005]
tree_sizes=3524 3543 3552 3548 3568

Tree=0
num_leaves=31
num_cat=0
split_feature=3 8 8 3 3 8 8 4 6 6 6 6 8 11 3 11 6 8 8 11 9 3 3 2 2 7 8 11 11 3
split_gain=150436 124274 23989.3 23423.9 19172.4 21002.5 15758.2 13505.8 10832.7 10180.9 10068.9 8327.77 10878.6 8771.51 5011.26 4965.01 4511.23 5833.17 4509.79 4320.54 4104.03 3944.66 3727.25 3392.65 3279.36 2639.87 2480.62 2269.46 2255.06 2206.91
threshold=58942.000000000007 656.50000000000011 1338.5000000000002 23222.000000000004 116485.50000000001 226.50000000000003 267.50000000000006 2398.5000000000005 2001.5000000000002 2001.5000000000002 1999.5000000000002 1999.5000000000002 365.50000000000006 2004.5000000000002 79903.500000000015 2004.5000000000002 2002.5000000000002 511.50000000000006 2558.5000000000005 2003.5000000000002 140.50000000000003 8846.0000000000018 24126.000000000004 2004.5000000000002 2002.5000000000002 3.5999698295368838 850.50000000000011 2004.5000000000002 2003.5000000000002 972.50000000000011
decision_type=2 2 2 2 2 2 2 2 10 10 10 8 2 2 2 2 10 2 2 2 2 2 2 2 2 2 2 2 2 2
left_child=1 3 7 11 5 14 9 29 22 20 18 12 25 -13 -2 -11 17 28 -4 -18 -5 -14 26 -19 -6 -1 -9 -25 -7 -3
right_child=4 2 10 6 24 16 -8 8 -10 15 -12 13 21 -15 -16 -17 19 23 -20 -21 -22 -23 -24 27 -26 -27 -28 -29 -30 -31
leaf_value=-0.44032479836731225 -0.38331004565586746 -0.40974077510575102 -0.29383404724304107 -0.42433161018933863 -0.25507427259526122 -0.34539151464991258 -0.36199560222898047 -0.35619624696783353 -0.37503451675226096 -0.34720100900360878 -0.34179542199911178 -0.38046219951790172 -0.41260699777210685 -0.42390732179084167 -0.34975739287732677 -0.40035107030326167 -0.31023230451305761 -0.28423946520776472 -0.23725726312192588 -0.3540223460185481 -0.3837264875100368 -0.38106315343305436 -0.31497102214101003 -0.34131763215962002 -0.30500547004513667 -0.41974551039011609 -0.32863090890348839 -0.29829580326622152 -0.31813417644210823 -0.37427590302088509
leaf_weight=136587.82063400745 69239.68999171257 22695.323169350624 75129.813115596771 108996.08449298143 13894.754939496517 48732.949888408184 237559.18124252558 57607.10834634304 67889.406135678291 42865.581637680531 42997.995633602142 151288.6790587306 82778.355373620987 67076.282530009747 124650.4689322114 29790.244204938412 34566.588909745216 72917.022737681866 17340.907857120037 64712.680599153042 32258.179649949074 76080.918398916721 99338.335349857807 22815.875582456589 246595.52868998051 114660.35339713097 75344.531971871853 26506.280276834965 80473.093064367771 77341.151054799557
leaf_count=564242 286028 93754 310360 450261 57399 201315 981353 237974 280450 177077 177624 624971 341956 277091 514929 123063 142794 301219 71635 267327 133258 314289 410365 94252 1018682 473660 311247 109497 332433 319495
internal_value=-0.359969 -0.377567 -0.338188 -0.3971 -0.324655 -0.335328 -0.379724 -0.3505 -0.339895 -0.399412 -0.301815 -0.409583 -0.417983 -0.393807 -0.361739 -0.368994 -0.320727 -0.3136 -0.283224 -0.338776 -0.415059 -0.3975 -0.329625 -0.297941 -0.302342 -0.430933 -0.340575 -0.318197 -0.328415 -0.382322
internal_weight=0 1.61563e+06 535685 1.07994e+06 805105 544615 451469 400216 300179 213910 135469 628472 410107 218365 193890 72655.8 350724 251445 92470.7 99279.3 141254 158859 232290 122239 260490 251248 132952 49322.2 129206 100036
internal_count=10000000 6674125 2212904 4461221 3325875 2249794 1865012 1653285 1240036 883659 559619 2596209 1694147 902062 800957 300140 1448837 1038716 381995 410121 583519 656245 959586 504968 1076081 1037902 549221 203749 533748 413249
is_linear=0
shrinkage=1


Tree=1
num_leaves=31
num_cat=0
split_feature=3 8 3 8 6 3 8 8 6 3 6 8 11 11 6 3 8 8 2 9 11 6 6 8 11 5 11 3 2 8
split_gain=122192 101487 18507.6 20701.2 17963.1 16521.9 15262 15122.4 9373.81 7665.31 5883.78 9344.27 6657.78 5405.43 5176.21 5038.95 4374.25 4047.82 3459.89 5865.24 4612.84 5379.11 3644.94 3430.98 3149.7 3413.11 3101.94 2898.4 2690.6 2596.91
threshold=51931.500000000007 715.50000000000011 110038.00000000001 290.50000000000006 2000.5000000000002 20218.000000000004 305.50000000000006 1535.5000000000002 2001.5000000000002 8644.5000000000018 1998.5000000000002 393.50000000000006 2004.5000000000002 2004.5000000000002 2001.5000000000002 83099.000000000015 152.50000000000003 594.50000000000011 2004.5000000000002 84.500000000000014 2004.5000000000002 2003.5000000000002 2002.5000000000002 117.50000000000001 2002.5000000000002 2001.5000000000002 2002.5000000000002 6775.5000000000009 2004.5000000000002 1107.0000000000002
decision_type=2 2 2 2 8 2 2 2 10 2 8 2 2 2 10 2 2 2 2 2 2 10 10 2 2 2 2 2 2 2
left_child=1 5 3 15 7 10 8 9 16 29 11 -1 -12 -10 17 23 -7 -5 19 -4 21 -20 -22 -2 -6 -26 -16 -13 -19 -3
right_child=2 4 18 14 24 6 -8 -9 13 -11 12 27 -14 -15 26 -17 -18 28 20 -21 22 -23 -24 -25 25 -27 -28 -29 -30 -31
leaf_value=-0.065822095166234343 -0.034558501193293491 -0.010356859853965058 0.042046712515791937 0.031946594005048838 0.017326386154494746 -0.069477077987514332 -0.0017659919547001477 0.074940802037873386 0.01145218933954751 0.036783874490834895 -0.02192954730340288 -0.04810415627650437 -0.058538052711502933 -0.042646897945170799 0.052853924319106495 0.013144609606262707 -0.036223513921793987 0.072608216324832359 0.002114716846786479 0.085727265550115853 0.066262887888102071 0.065642804523973239 0.027662773946596643 -0.0025663484990647994 0.03132285941293305 -0.027274516286736925 0.01123523307516346 -0.01930937810661584 0.039255308104029149 0.023241708328343463
leaf_weight=222585.74984407425 54080.847350552678 64964.044201865792 66051.78443184495 115810.74801298976 30248.863869130611 74428.636559441686 231639.97381043434 72020.17754290998 47792.742759853601 159703.89211565256 166738.5587580055 66074.515381157398 70760.633362129331 30102.177193284035 21902.968538105488 119212.00547604263 84430.486601293087 60802.23500624299 47988.245716810226 57501.478936746716 72163.991686314344 18453.884864121675 37009.085732191801 88181.371290490031 11363.444385617971 79363.135367363691 98194.67299759388 74226.092656686902 40164.146464779973 35617.076809555292
leaf_count=931968 224433 268835 270320 475969 124920 311232 957445 293996 197191 655860 692015 275389 295805 125291 89866 491314 351387 248374 196578 235308 295512 75618 151727 364888 46764 328304 404254 307894 164786 146757
internal_value=0 -0.0172754 0.0292461 0.0190922 0.0223751 -0.0340916 -0.0200151 0.0343863 -0.03787 0.023165 -0.0450735 -0.0530821 -0.0328367 -0.00945418 0.0354792 -0.00202032 -0.0518035 0.0447056 0.0495544 0.0623756 0.0405342 0.0197592 0.0531777 -0.0147281 -0.0106183 -0.0199352 0.0188255 -0.0328703 0.0593405 0.00154083
internal_weight=0 1.52206e+06 897517 598349 453281 1.06878e+06 468394 332305 236754 260285 600386 362886 237499 77894.9 336875 261474 158859 216777 299168 123553 175615 66442.1 109173 142262 120975 90726.6 120098 140301 100966 100581
internal_count=10000000 6311053 3688947 2463884 1865436 4445617 1942546 1365448 985101 1071452 2503071 1515251 987820 322482 1383249 1080635 662619 889129 1225063 505628 719435 272196 447239 589321 499988 375068 494120 583283 413160 415592
is_linear=0
shrinkage=0.1


Tree=2
num_leaves=31
num_cat=0
split_feature=3 8 8 3 3 8 4 6 8 6 8 11 5 6 6 3 8 9 2 3 8 11 11 9 3 6 11 8 9 2
split_gain=99032.9 83311.4 18311.5 15631.4 12435.4 14202.9 11283.2 8227.41 7657.56 7249.51 9034.55 7553.24 6484.58 5755.61 4931.34 4114.13 3917.02 3740.6 3461.82 2877.02 2698.77 2442.16 2434.83 2336.25 2188.36 2172.62 3030.03 2364.85 2146.39 2101.32
threshold=60420.000000000007 609.50000000000011 1208.5000000000002 29000.500000000004 127195.50000000001 204.50000000000003 2398.5000000000005 1998.5000000000002 232.50000000000003 2000.5000000000002 274.50000000000006 2003.5000000000002 2002.5000000000002 2001.5000000000002 1997.5000000000002 10457.500000000002 2558.5000000000005 88.500000000000014 2003.5000000000002 20754.500000000004 436.50000000000006 2004.5000000000002 2004.5000000000002 124.50000000000001 78651.500000000015 1997.5000000000002 2003.5000000000002 395.50000000000006 354.50000000000006 2002.5000000000002
decision_type=2 2 2 2 2 2 2 8 2 8 2 2 2 10 10 2 2 2 2 2 2 2 2 2 2 10 2 2 2 2
left_child=1 3 6 9 5 14 -3 16 13 10 -1 -11 19 23 17 -12 -4 -2 20 -8 -7 -15 -13 -5 -16 26 27 -20 -17 -6
right_child=4 2 7 8 29 18 12 -9 -10 11 15 22 -14 21 24 28 -18 -19 25 -21 -22 -23 -24 -25 -26 -27 -28 -29 -30 -31
leaf_value=-0.06147802988010001 -0.040068257079846133 -0.025137282729786964 0.051413286164445619 -0.055044599757978256 0.091715943926064539 0.025805419717323488 0.0095081306822046678 0.01463064403860042 -0.0013036185322302064 0.0021373960558562313 -0.046311261680535523 -0.025251818271305529 -0.011121707480211268 0.012406914707686373 -0.014076708536594387 -0.028133344759404072 0.10448304169755998 0.010275918930803062 -0.024493353288249899 0.031738185448453943 0.068714610132902434 -0.030477575496755723 -0.052512942818648739 -0.018231092920942542 0.017612971774263162 0.021897898770024325 0.047955907088930466 0.031853443775149877 0.0031455326422778346 0.047357219214722496
leaf_weight=228705.37451732159 43898.175653487444 100223.66153623164 93926.267674490809 72140.978629097342 11294.146956309676 22809.639314472675 105676.3080522269 66000.863512039185 196223.88879060745 69584.466595083475 128373.58560362458 66783.064540758729 80523.237814277411 31818.580596968532 28015.015113204718 89768.828597769141 16325.213930979371 22233.377046480775 11303.160665735602 129638.10408297181 41012.82160769403 22790.779701083899 64314.567267730832 22651.494914963841 98090.289623871446 214549.04997913539 90939.205342456698 21841.086685597897 29033.969132080674 196098.63516411185
leaf_count=969908 181573 417222 381873 305275 45623 93537 435061 271262 811673 289410 541368 277694 333561 131045 116684 374918 65734 91813 46425 530753 166368 95598 271746 94805 402935 877952 371017 88967 120792 797408
internal_value=0 -0.0143013 0.0155403 -0.0315932 0.0286881 0.021335 0.00409641 0.0425549 -0.0142917 -0.0404318 -0.0471539 -0.0244915 0.013373 -0.0313502 -0.00102557 -0.0339001 0.0592715 -0.0231426 0.0320158 0.021755 0.0533792 -0.00549058 -0.0386257 -0.0462477 0.0105729 0.0279894 0.0385219 0.0126375 -0.0204892 0.0497729
internal_weight=0 1.6145e+06 592314 1.02219e+06 802085 594692 416061 176252 345626 676564 475882 200682 315838 149402 192237 247176 110251 66131.6 402455 235314 63822.5 54609.4 131098 94792.5 126105 338633 124083 33144.2 118803 207393
internal_count=10000000 6719698 2435466 4284232 3280302 2437271 1716597 718869 1438396 2845836 2006986 838850 1299375 626723 793005 1037078 447607 273386 1644266 965814 259905 226643 549440 400080 519619 1384361 506409 135392 495710 843031
is_linear=0
shrinkage=0.1


Tree=3
num_leaves=31
num_cat=0
split_feature=3 8 3 8 8 6 6 3 8 11 8 6 3 3 5 3 8 8 11 10 2 8 11 6 6 7 5 7 3 9
split_gain=81076.5 68164.4 14298.6 17055.1 14014.4 12238.3 11605.7 9631.51 7741.54 7529.72 5793.21 5063 4540.3 3785.48 3413.26 3123.14 3037.87 2912.64 2875.03 2864.61 2693.45 4924.61 3159.04 4624.68 3600.47 3061.87 2280.42 2256.16 2467.58 2245.18
threshold=45538.000000000007 812.00000000000011 108688.50000000001 319.50000000000006 432.50000000000006 1999.5000000000002 1999.5000000000002 13272.500000000002 1741.0000000000002 2004.5000000000002 200.50000000000003 2001.5000000000002 79903.500000000015 14656.000000000002 2002.5000000000002 2199.5000000000005 594.50000000000011 96.500000000000014 2002.5000000000002 3.3620352380111282 2004.5000000000002 287.50000000000006 2004.5000000000002 2002.5000000000002 2003.5000000000002 3.7812472089871196 2002.5000000000002 3.8391667929422595 2199.5000000000005 233.50000000000003
decision_type=2 2 2 2 2 8 8 2 2 2 2 10 2 2 2 2 2 2 2 2 2 2 2 8 10 2 2 2 2 2
left_child=1 4 3 12 5 10 8 -6 15 14 27 16 17 -12 -7 -3 -5 -2 -13 -16 21 -4 23 -22 -24 -23 -9 28 -1 -15
right_child=2 6 20 11 7 9 -8 26 -10 -11 13 18 -14 29 19 -17 -18 -19 -20 -21 22 25 24 -25 -26 -27 -28 -29 -30 -31
leaf_value=-0.034974227581425772 -0.035760830390696267 -0.0069917960800673952 0.027881190601178319 0.0256371939889826 -0.029649324103826358 -0.024320812059860523 -0.0042721074825017476 0.0077687394738589089 0.070007578412736263 -0.043698475699380027 -0.04964858013554261 0.044401530608129292 0.0098188504054358711 -0.033988798738413303 0.0338618181619426 0.030550719291252179 0.048147626776427997 -0.0063425468594402543 0.004988549021920842 -0.0053017186923948918 -0.008035140642541334 0.048889074243579224 0.051251698218236198 0.043558751017984523 0.0074161842305893446 0.089891866809230295 -0.017089092414202103 -0.041978103981872419 -0.0724584992676537 -0.0046427999116470733
leaf_weight=20629.632765769958 45998.172330617905 25462.725863412023 53918.287374064326 118654.292900756 182193.09036675096 70719.954389855266 111945.84496842325 157212.41650776565 49293.816150546074 86384.346034169197 113684.54238499701 22619.568637609482 144689.15214087069 76349.013098984957 24785.553987085819 170768.63951931894 121178.78273609281 125422.37646824121 101826.62478217483 75778.924856930971 38554.093607664108 39719.677372604609 90501.861168071628 31623.933773130178 23629.487894400954 33633.673425272107 48226.192700490355 49292.833176627755 118102.96928551793 39589.26121082902
leaf_count=89166 194098 105285 218367 484369 765600 295706 462481 649016 198195 367971 487678 91971 594223 321446 102938 696629 490384 521353 417714 314965 157003 160305 366139 128350 96099 135639 200410 211855 509088 165557
internal_value=0 -0.0153628 0.0218947 0.0137701 -0.0280666 -0.036766 0.0224124 -0.012911 0.034579 -0.0196272 -0.0473398 0.0285186 -0.00322593 -0.0366823 -0.0074872 0.0256793 0.0370109 -0.0142365 0.0121523 0.0043507 0.0396362 0.0508248 0.0319101 0.0152143 0.0421761 0.0676895 0.00193343 -0.0603551 -0.0668846 -0.0239681
internal_weight=0 1.42042e+06 991970 680389 1.06295e+06 675317 357471 387632 245525 257669 417648 364279 316110 229623 171284 196231 239833 171421 124446 100564 311581 127272 184309 70178 114131 73353.4 205439 188025 138733 115938
internal_count=10000000 5943986 4056014 2794112 4481396 2866370 1462590 1615026 1000109 1081580 1784790 1484438 1309674 974681 713609 801914 974753 715451 509685 417903 1261902 514311 747591 285353 462238 295944 849426 810109 598254 487003
is_linear=0
shrinkage=0.1


Tree=4
num_leaves=31
num_cat=0
split_feature=3 8 3 6 3 8 8 8 6 3 6 6 8 11 9 9 11 2 2 11 5 8 3 7 6 2 11 5 7 4
split_gain=65977.3 56878.5 11331.5 10791.1 9318.94 10877.8 9241.12 8192.39 5491.46 4435.79 4252.4 3705.9 6170.22 4559.86 3602.04 2850.9 2800.66 2582.91 2562.55 2386.47 2561.47 2354.38 2302.49 2260.64 1986.37 1867.89 2788.28 2652.43 1798.07 1784.9
threshold=55148.000000000007 721.50000000000011 21103.000000000004 2000.5000000000002 127195.50000000001 183.50000000000003 326.50000000000006 1741.0000000000002 2000.5000000000002 6162.0000000000009 1997.5000000000002 1997.5000000000002 336.50000000000006 2003.5000000000002 170.50000000000003 88.500000000000014 2004.5000000000002 2003.5000000000002 2004.5000000000002 2002.5000000000002 2001.5000000000002 436.50000000000006 5350.5000000000009 3.8596285486710582 2001.5000000000002 2004.5000000000002 2004.5000000000002 2003.5000000000002 3.6778811642683205 51440.500000000007
decision_type=2 2 2 8 2 2 2 2 10 2 10 8 2 2 2 2 2 2 2 2 2 2 2 2 8 2 2 2 2 2
left_child=1 2 11 7 5 10 8 9 14 18 15 12 28 24 -4 -2 -10 21 -3 -5 -21 -7 -14 -11 -13 -22 -27 -28 -1 -12
right_child=4 3 6 19 -6 17 -8 -9 16 23 29 13 22 -15 -16 -17 -18 -19 -20 20 25 -23 -24 -25 -26 26 27 -29 -30 -31
leaf_value=-0.061966915560823135 -0.038431973342303756 -0.014912952856440656 -0.046841235458557902 0.015657164498682274 0.040406254201787874 0.018467342899269375 0.0015487808287992847 0.061484975529453659 0.0041970354491002769 0.033183121648047452 -0.0048387961469305062 -0.021292284638313879 -0.04198456385728367 -0.035504821197449278 -0.0096133830823349944 0.0064829951594598386 -0.030057840540341215 0.021112893608867908 0.020017279929068321 0.026899829293503225 -0.040660292002700577 0.055251201117881593 -0.017542852522347035 0.0066295109530833387 0.0066268943770353876 0.014344731010916724 0.0073802038721559535 -0.062761491512016723 -0.041235874659078298 0.0193178233195637
leaf_weight=107951.38601158559 45685.142136082053 48033.822583839297 117205.52632732689 31020.026507496834 209200.3293710351 27853.776344180107 221022.77968497574 55309.766113117337 64142.974469617009 154906.52428974211 62787.140632495284 56557.329830884933 62596.752245008945 165901.37165817618 33395.99991351366 20461.160237058997 38012.683753803372 394635.51629410684 37320.600297793746 11881.850883930922 33935.982238307595 46365.665119946003 100296.70258097351 40429.212410092354 46381.515089526772 23515.662850514054 8945.8550398349762 13568.307105451822 68312.148056566715 59642.680727168918
leaf_count=474152 191181 198416 506409 127661 843031 113804 913625 221881 265803 629102 260065 239758 268914 708737 140571 84527 162122 1605459 154205 48522 141245 186442 423082 164142 193507 97929 37205 56577 297824 244102
internal_value=0 -0.0124664 -0.0249804 0.0170354 0.0220235 0.016174 -0.0133863 0.0263088 -0.0264462 0.0193774 -0.00410852 -0.0340151 -0.040966 -0.0252461 -0.0385859 -0.0245383 -0.00854939 0.0243317 0.000360037 -0.00832408 -0.0164234 0.0414466 -0.0269353 0.0276872 -0.00871264 -0.0228606 -0.00973758 -0.0348911 -0.0539325 0.0069293
internal_weight=0 1.54064e+06 1.08178e+06 458868 866631 657431 473780 336000 252757 280690 188576 607997 339157 268840 150602 66146.3 102156 468855 85354.4 122868 91847.7 74219.4 162893 195336 102939 79965.8 46029.8 22514.2 176264 122430
internal_count=10000000 6471389 4594504 1876885 3528611 2685580 1988530 1367746 1074905 1145865 779875 2605974 1463972 1142002 646980 275708 427925 1905705 352621 509139 381478 300246 691996 793244 433265 332956 191711 93782 771976 504167
is_linear=0
shrinkage=0.1


end of trees

feature_importances:
Ratings_from_User=39
Ratings_for_Movie=31
Release_Year=26
User_Entry_Year=21
Year=10
Ratings_from_User_2005=8
Netflix_Release_Year=6
AVG_Rating_for_Movie=5
Ratings_for_Movie_2005=3
AVG_Rating_from_User=1

parameters:
[boosting: gbdt]
[objective: binary]
[metric: auc]
[tree_learner: serial]
[device_type: cpu]
[linear_tree: 0]
[data: ]
[valid: ]
[num_iterations: 5]
[learning_rate: 0.1]
[num_leaves: 31]
[num_threads: 0]
[deterministic: 0]
[force_col_wise: 0]
[force_row_wise: 0]
[histogram_pool_size: -1]
[max_depth: -1]
[min_data_in_leaf: 20]
[min_sum_hessian_in_leaf: 0.001]
[bagging_fraction: 1]
[pos_bagging_fraction: 1]
[neg_bagging_fraction: 1]
[bagging_freq: 0]
[bagging_seed: 3]
[feature_fraction: 1]
[feature_fraction_bynode: 1]
[feature_fraction_seed: 2]
[extra_trees: 0]
[extra_seed: 6]
[early_stopping_round: 0]
[first_metric_only: 0]
[max_delta_step: 0]
[lambda_l1: 0]
[lambda_l2: 0]
[linear_lambda: 0]
[min_gain_to_split: 0]
[drop_rate: 0.1]
[max_drop: 50]
[skip_drop: 0.5]
[xgboost_dart_mode: 0]
[uniform_drop: 0]
[drop_seed: 4]
[top_rate: 0.2]
[other_rate: 0.1]
[min_data_per_group: 100]
[max_cat_threshold: 32]
[cat_l2: 10]
[cat_smooth: 10]
[max_cat_to_onehot: 4]
[top_k: 20]
[monotone_constraints: ]
[monotone_constraints_method: basic]
[monotone_penalty: 0]
[feature_contri: ]
[forcedsplits_filename: ]
[refit_decay_rate: 0.9]
[cegb_tradeoff: 1]
[cegb_penalty_split: 0]
[cegb_penalty_feature_lazy: ]
[cegb_penalty_feature_coupled: ]
[path_smooth: 0]
[interaction_constraints: ]
[verbosity: 1]
[saved_feature_importance_type: 0]
[max_bin: 255]
[max_bin_by_feature: ]
[min_data_in_bin: 3]
[bin_construct_sample_cnt: 200000]
[data_random_seed: 1]
[is_enable_sparse: 1]
[enable_bundle: 1]
[use_missing: 1]
[zero_as_missing: 0]
[feature_pre_filter: 1]
[pre_partition: 0]
[two_round: 0]
[header: 0]
[label_column: ]
[weight_column: ]
[group_column: ]
[ignore_column: ]
[categorical_feature: ]
[forcedbins_filename: ]
[objective_seed: 5]
[num_class: 1]
[is_unbalance: 0]
[scale_pos_weight: 1]
[sigmoid: 1]
[boost_from_average: 1]
[reg_sqrt: 0]
[alpha: 0.9]
[fair_c: 1]
[poisson_max_delta_step: 0.7]
[tweedie_variance_power: 1.5]
[lambdarank_truncation_level: 30]
[lambdarank_norm: 1]
[label_gain: ]
[eval_at: ]
[multi_error_top_k: 1]
[auc_mu_weights: ]
[num_machines: 1]
[local_listen_port: 12400]
[time_out: 120]
[machine_list_filename: ]
[machines: ]
[gpu_platform_id: -1]
[gpu_device_id: -1]
[gpu_use_dp: 0]
[num_gpu: 1]

end of parameters

pandas_categorical:[]
